{"layers":[{"out_depth":15,"out_sx":1,"out_sy":1,"layer_type":"input"},{"out_depth":30,"out_sx":1,"out_sy":1,"layer_type":"fc","num_inputs":15,"l1_decay_mul":0,"l2_decay_mul":1,"filters":[{"sx":1,"sy":1,"depth":15,"w":{"0":-0.08779729314408141,"1":0.01585588457659587,"2":-0.01968861796549983,"3":0.011605524819684169,"4":-0.058741727157128804,"5":0.003130482374022302,"6":0.10187783557374062,"7":0.003975965981901131,"8":-0.02030534605774239,"9":-0.034341787336112414,"10":0.008758297368765572,"11":-0.03639016781002186,"12":-0.06337132580941898,"13":-0.04355885292012108,"14":-0.024485877377472185}},{"sx":1,"sy":1,"depth":15,"w":{"0":-0.04077191715422724,"1":0.0014856463827720562,"2":-0.005375280793531628,"3":-0.001498565648113828,"4":0.38518546493369904,"5":0.33789929136579805,"6":0.038290093293305585,"7":-0.006484009121942722,"8":-0.0024318305908268725,"9":-0.008418191097138171,"10":0.4535368350599775,"11":0.44151907916906163,"12":-0.6134758581520756,"13":-0.6166872854316996,"14":-0.6212416508552225}},{"sx":1,"sy":1,"depth":15,"w":{"0":0.020861122951010756,"1":-0.0062201087730801635,"2":-0.021974812169297205,"3":-0.0675985799443215,"4":0.3362502852465255,"5":-0.32877968723102285,"6":-0.01546482691853736,"7":-0.005483164695689111,"8":-0.0035368666349432686,"9":-0.044319271992004805,"10":0.34591104861227767,"11":-0.31658499736977985,"12":0.16836108132491495,"13":-0.2052304792412478,"14":0.152551361483524}},{"sx":1,"sy":1,"depth":15,"w":{"0":-0.026097972045453728,"1":0.015114991679048556,"2":0.009898860555711184,"3":-0.07153679669481218,"4":-0.06761496502404671,"5":-0.06399449185056169,"6":0.028990043159037446,"7":-0.014256755766213032,"8":-0.025019431839721096,"9":-0.002091855507542828,"10":-0.06377203192666206,"11":-0.19971759151292964,"12":-0.055338488933677134,"13":0.1850630586657117,"14":-0.024433229463690025}},{"sx":1,"sy":1,"depth":15,"w":{"0":-0.0012201438358941748,"1":0.01401079382563687,"2":0.007288769473622091,"3":0.0662809138171367,"4":-0.12359685718954799,"5":-0.2591900368177718,"6":0.00242882339177886,"7":-0.020636394292417103,"8":0.005413218939620095,"9":0.02241924655651589,"10":-0.11710307998607854,"11":-0.33581041502297837,"12":0.30969019106458157,"13":-0.08673930758816596,"14":-0.095509552379809}},{"sx":1,"sy":1,"depth":15,"w":{"0":0.13772886428061373,"1":-0.006087600627467158,"2":0.11635798126534361,"3":0.11768045620245328,"4":-0.06964773486616847,"5":-0.3664504759859912,"6":-0.13138301790484191,"7":-0.005461680390252048,"8":0.07116295109160996,"9":0.1332588260894928,"10":-0.02514856660307125,"11":-0.38897221496507545,"12":0.2771011498368461,"13":0.1770932841347336,"14":0.227504128543211}},{"sx":1,"sy":1,"depth":15,"w":{"0":0.004039170852836959,"1":0.008376311333278279,"2":-0.02229960304906098,"3":0.03597954933160835,"4":-0.27596707517689584,"5":0.3072832919964372,"6":-0.003847115293447334,"7":0.03186600019849036,"8":0.00988511639309627,"9":0.06880310749723348,"10":-0.33269147563615864,"11":0.3165529333467601,"12":0.20244879087311118,"13":0.17225617124307802,"14":-0.20616521388634146}},{"sx":1,"sy":1,"depth":15,"w":{"0":0.0043979474647140296,"1":0.010815269093778699,"2":-0.012933920157466049,"3":-0.40263215243702066,"4":-0.010545488879456694,"5":1.0071748517359236,"6":-0.0021973574314805826,"7":0.009717383281610337,"8":-0.013058282157562082,"9":-0.46493235566537605,"10":0.0007796459076476953,"11":0.6578312021124224,"12":-0.24634253945626144,"13":-0.2472317444377879,"14":-0.24298105589616456}},{"sx":1,"sy":1,"depth":15,"w":{"0":0.008062849822016434,"1":0.3357948457296314,"2":-0.09301921306515328,"3":0.004981915974686613,"4":0.027276956764297103,"5":-0.16071615072885564,"6":0.015499454582551225,"7":0.38624206432037267,"8":-0.11510098595351874,"9":0.04525100977583659,"10":-0.02296457102312783,"11":-0.33093376446989375,"12":0.2509088390851202,"13":-0.20638261197117763,"14":-0.12508008252387118}},{"sx":1,"sy":1,"depth":15,"w":{"0":0.00008350053541176824,"1":-0.053912573013680486,"2":-0.02432720202526043,"3":-0.1941475332453601,"4":0.028005298598802072,"5":0.4120903993689976,"6":0.002164341044965177,"7":-0.03899494240551774,"8":0.01811074284032156,"9":-0.18044994545949167,"10":0.01255128733020671,"11":0.22409842335390032,"12":-0.07635118961244142,"13":-0.06001607473948221,"14":-0.19774484568990783}},{"sx":1,"sy":1,"depth":15,"w":{"0":0.06044095883916633,"1":-0.1113838456719199,"2":0.18920089320692904,"3":-0.049504255812286804,"4":-0.01713680039842961,"5":-0.1357656534862586,"6":-0.06555285422106386,"7":-0.09217117277754854,"8":0.17601167417118205,"9":0.00864206849579916,"10":0.017648634479262675,"11":-0.22650241376874783,"12":0.24902645469239812,"13":-0.10729133556752889,"14":0.001761342491660206}},{"sx":1,"sy":1,"depth":15,"w":{"0":0.06427281081632188,"1":-0.027768794931078897,"2":0.014747466280913328,"3":-0.04748336419830635,"4":0.02983456207663296,"5":-0.07972978670065278,"6":-0.022765150368294806,"7":0.008912921918366228,"8":-0.10499927638678831,"9":-0.051710276031692926,"10":0.06185613756217249,"11":-0.04672717531335807,"12":-0.05674121808038579,"13":-0.10739748470697302,"14":-0.011110327563206646}},{"sx":1,"sy":1,"depth":15,"w":{"0":-0.008522617547615645,"1":-0.13370585522082767,"2":-0.05771988662848671,"3":0.06327208032362003,"4":0.03432726957178863,"5":0.009231847155412615,"6":-0.09312537283089897,"7":-0.015101854708784192,"8":-0.0366884963001723,"9":-0.03226125243403529,"10":-0.0273917279699886,"11":-0.04950504921878066,"12":-0.06657343024506862,"13":-0.06298171095875134,"14":-0.004178324909185355}},{"sx":1,"sy":1,"depth":15,"w":{"0":-0.05396353369733283,"1":-0.08540308778604941,"2":0.08351623340901948,"3":0.05155080145606503,"4":-0.06592447427589426,"5":-0.031918766954650485,"6":-0.017395464202391898,"7":-0.019294845786791418,"8":-0.09015685878555867,"9":-0.011652087637630216,"10":-0.10852361862113444,"11":-0.032925060332129594,"12":0.03868535859097731,"13":0.03849736176092305,"14":0.012136779971782044}},{"sx":1,"sy":1,"depth":15,"w":{"0":0.036228959407694966,"1":-0.5036323705696079,"2":0.04053760383119796,"3":-0.012439015316891018,"4":-0.028117763901595316,"5":-0.31833827607911774,"6":-0.01926026668416314,"7":-0.40227304331409025,"8":0.029701856021423813,"9":0.03848266986608669,"10":0.03419785146505941,"11":-0.42203848574648695,"12":0.26230028273949557,"13":0.25565662422630114,"14":0.03325509948216333}},{"sx":1,"sy":1,"depth":15,"w":{"0":0.005678353230693802,"1":0.054960702220837834,"2":-0.3687591472355045,"3":0.05270494827497802,"4":-0.01617967683238575,"5":-0.6560103994140009,"6":-0.004825018357670884,"7":-0.035686859093109195,"8":-0.495808463683677,"9":0.00859416573794208,"10":0.018390607173778037,"11":-1.076226273576312,"12":0.6547298666849486,"13":0.6437203450796402,"14":0.6408983074185777}},{"sx":1,"sy":1,"depth":15,"w":{"0":-0.022309961026250668,"1":0.6457603684648661,"2":0.003161877383253908,"3":0.012737056098677625,"4":-0.019755805760911196,"5":-0.5709358116738319,"6":0.013586716637727536,"7":0.6478094005970536,"8":-0.006952671661976273,"9":0.01164805548942794,"10":0.02410645842152634,"11":-0.6749998713052198,"12":-0.3279928435950449,"13":0.18878018905352503,"14":-0.11522368191722197}},{"sx":1,"sy":1,"depth":15,"w":{"0":-0.04695095323703113,"1":-0.029316869436408564,"2":0.0008813447452625943,"3":-0.14898557857022524,"4":0.16872330755645631,"5":0.4088625267675497,"6":0.0455140739231427,"7":0.03323500209546315,"8":0.028269704331962787,"9":-0.022289756326897708,"10":0.09342026966603659,"11":0.45633870779706087,"12":0.03011797015664948,"13":-0.4334118712899926,"14":-0.42561816579362993}},{"sx":1,"sy":1,"depth":15,"w":{"0":0.039314308593867586,"1":-0.28276739437977316,"2":0.09335983672353682,"3":-0.09792785083616735,"4":0.10561878073883753,"5":-0.08921557891922494,"6":-0.03251827186935426,"7":-0.24698321260274694,"8":0.07553721832635367,"9":-0.08224696893575627,"10":0.08177072659962323,"11":-0.13027550127089646,"12":-0.06980272432752556,"13":0.523035971113291,"14":-0.07859255113070109}},{"sx":1,"sy":1,"depth":15,"w":{"0":0.05614162987809915,"1":0.05000890697622224,"2":-0.004381330931093024,"3":-0.08306657859155463,"4":0.1817895298738335,"5":-0.25295964913441166,"6":-0.04920638814306837,"7":0.05678054935339937,"8":-0.021215693858049826,"9":-0.12063910906467928,"10":0.19440394343658904,"11":-0.06605867102055331,"12":0.3423612868858264,"13":0.2289870160147987,"14":0.2642597688250144}},{"sx":1,"sy":1,"depth":15,"w":{"0":0.24385645586110594,"1":-0.0196922827430563,"2":-0.07099916510596982,"3":0.19437237847939587,"4":-0.0010322320504704728,"5":0.2728123082474181,"6":-0.2435168890023547,"7":-0.03476529345485844,"8":-0.03496405383424092,"9":0.20722890417931983,"10":-0.01129052615626767,"11":0.697215573393272,"12":-0.32641645256928664,"13":-0.30644667425736605,"14":-0.32289970036765164}},{"sx":1,"sy":1,"depth":15,"w":{"0":-0.01862433478363506,"1":-0.09008574853907667,"2":0.022878281581032646,"3":0.040097018866879795,"4":-0.062055488331096816,"5":0.16257819505550367,"6":0.016230692695873645,"7":-0.15350502675779526,"8":-0.03144043452751788,"9":0.02573618581862285,"10":-0.05891768340676936,"11":0.18795211601039047,"12":0.3325815620170458,"13":0.026129753593398142,"14":-0.08532882005017203}},{"sx":1,"sy":1,"depth":15,"w":{"0":0.01546879713357119,"1":-0.08056015266449387,"2":-0.07033002217179224,"3":-0.08196022285287854,"4":0.017863235258054635,"5":0.071803788482867,"6":-0.014433544741111911,"7":-0.04665548228362008,"8":-0.04845373686285119,"9":-0.13523496841216967,"10":0.10829317337692833,"11":0.044554187250342124,"12":0.25671461357054776,"13":-0.000880531084151286,"14":0.025144287715618868}},{"sx":1,"sy":1,"depth":15,"w":{"0":-0.2320476447925144,"1":-0.007917466806620383,"2":0.004425216994741045,"3":0.016640571546067264,"4":-0.020126301593623094,"5":-0.11668172641798023,"6":-0.07811359049895084,"7":0.0022717116047936002,"8":-0.03184637411961961,"9":-0.05736184865939304,"10":0.032542986052295,"11":0.12507389868508836,"12":-0.04341495318451218,"13":0.033337094118964614,"14":0.06593231196102164}},{"sx":1,"sy":1,"depth":15,"w":{"0":0.011878733432381767,"1":-0.04062953952264341,"2":-0.01176582956068755,"3":-0.15989499883854838,"4":0.2624058047306929,"5":0.36449830624894736,"6":-0.013346515347129613,"7":0.013386691628368249,"8":0.006602195954905435,"9":-0.13242675785121624,"10":0.21549656169047943,"11":0.0843582608901524,"12":-0.23631910457501973,"13":0.06561690457982748,"14":-0.2886962110522693}},{"sx":1,"sy":1,"depth":15,"w":{"0":0.03734102592351373,"1":-0.06713979376542739,"2":-0.10747537599045595,"3":0.08946044547932556,"4":-0.1069967181996842,"5":0.08115344317317774,"6":-0.049714696751220755,"7":-0.0650758724375201,"8":-0.06262421025955595,"9":0.13816512154006844,"10":-0.11164376531845263,"11":0.022872270688888925,"12":-0.06209696662245303,"13":-0.10298799399875039,"14":0.16774161729855822}},{"sx":1,"sy":1,"depth":15,"w":{"0":-0.05735136559056949,"1":-0.07911386132702246,"2":-0.03140404944934166,"3":0.10418532182867615,"4":-0.006647836472746062,"5":0.589242276019613,"6":0.058057565034887675,"7":-0.10362513910690509,"8":0.031684953493020855,"9":0.10098558330842124,"10":-0.031582824376307654,"11":0.2787929733597321,"12":0.0051362985012173195,"13":0.4231207934654749,"14":0.24736760782809786}},{"sx":1,"sy":1,"depth":15,"w":{"0":-0.03451783895505845,"1":-0.030321259547410603,"2":0.0037624629633321847,"3":-0.07141366667176736,"4":0.1342218492423787,"5":0.27958220267814604,"6":0.03362453142015966,"7":0.0028844527177315053,"8":0.01647796176826092,"9":-0.06240847683806149,"10":0.20387148890207757,"11":0.46256848795181105,"12":-0.4027788768101078,"13":-0.025274891418511584,"14":0.06533829498470281}},{"sx":1,"sy":1,"depth":15,"w":{"0":-0.9962529519733546,"1":-0.0023065841677008285,"2":0.02537476552837267,"3":0.14199797236611233,"4":-0.006043631350720376,"5":-0.5841456175412615,"6":-0.20693370821993728,"7":-0.0002464370365501907,"8":0.02327287315404124,"9":0.1623167590899514,"10":0.011712547181000028,"11":0.6174326488390594,"12":0.09027712127489584,"13":0.08294535031501313,"14":0.09121567532110132}},{"sx":1,"sy":1,"depth":15,"w":{"0":0.02986537976253584,"1":0.06289216931188675,"2":0.07087783420101783,"3":-0.021435409913478025,"4":-0.14223468826502308,"5":-0.04308768313405316,"6":-0.0193595818261436,"7":0.08138200950860704,"8":0.035552521368375965,"9":-0.02244581388118432,"10":-0.17465579614590693,"11":-0.013020307051005096,"12":-0.07781790277243764,"13":-0.10538749751042568,"14":0.3760817023166893}}],"biases":{"sx":1,"sy":1,"depth":30,"w":{"0":0.1,"1":-0.6110383881283697,"2":0.17107334048290454,"3":0.13268043795036655,"4":0.20262973663168724,"5":0.35827516924384056,"6":0.1201941208910901,"7":-0.2881060820725134,"8":0.023296927048126723,"9":-0.059906901082003916,"10":0.12114470215436449,"11":0.08480430736656915,"12":0.1,"13":0.08377415342225356,"14":0.29086566106697714,"15":0.8964077450481386,"16":-0.059585809166536934,"17":-0.2380253794159344,"18":0.20976127496359867,"19":0.39144936579707473,"20":-0.25630269280152573,"21":0.23181086918597843,"22":0.1848638958337023,"23":0.09945862542764632,"24":-0.09169720218085428,"25":0.137890666283763,"26":0.3123777845556026,"27":-0.1146919153664251,"28":0.15953682091265103,"29":0.21569208081465055}}},{"out_depth":30,"out_sx":1,"out_sy":1,"layer_type":"relu"},{"out_depth":30,"out_sx":1,"out_sy":1,"layer_type":"fc","num_inputs":30,"l1_decay_mul":0,"l2_decay_mul":1,"filters":[{"sx":1,"sy":1,"depth":30,"w":{"0":-0.025782953347347096,"1":-0.1798871119732424,"2":0.04232404092168457,"3":-0.055617016789601514,"4":-0.27144650435794865,"5":-0.13088206719827328,"6":0.2371299867640991,"7":0.1231054399370734,"8":0.20948883354900832,"9":-0.011106696018221,"10":-0.028970593531041196,"11":-0.01624582663757846,"12":-0.01698545891492626,"13":-0.018142107909766902,"14":0.06195609243775743,"15":-0.12063347151948682,"16":-0.09571032139610529,"17":-0.09926439366817354,"18":0.044411742031012315,"19":0.07038886177646655,"20":-0.016048755903626945,"21":-0.11411819056263472,"22":-0.06069171450563454,"23":-0.041522141224331816,"24":-0.0015376024115730219,"25":0.05925754402743764,"26":0.353046104487343,"27":-0.010982693818967673,"28":0.18980239754430894,"29":0.06088265313843266}},{"sx":1,"sy":1,"depth":30,"w":{"0":0.019634624874634323,"1":-0.0172008416269844,"2":-0.025189194931702602,"3":0.06627749602576201,"4":-0.08975643485482236,"5":-0.18220355985356806,"6":-0.06797901585119269,"7":0.14577747409065925,"8":0.039238452633634076,"9":-0.0030566519353270164,"10":0.017986286832919154,"11":-0.010837656485945145,"12":0.013932038753340257,"13":0.11340109501285539,"14":0.27285225109002004,"15":0.0776842294550935,"16":-0.018116269600269363,"17":-0.10403556649620128,"18":-0.008117352213295629,"19":-0.0016033726840540298,"20":-0.5158578860475551,"21":0.09976249167819436,"22":0.07661685459584643,"23":0.006107888597654513,"24":-0.03814790567783991,"25":0.06271941413956032,"26":0.07428323877438116,"27":-0.04063352491505559,"28":0.4691852916869482,"29":-0.0372296115322716}},{"sx":1,"sy":1,"depth":30,"w":{"0":0.016924977414855345,"1":0.5233345309432623,"2":0.048110723024479926,"3":0.09412402850737263,"4":-0.0825735454244044,"5":-0.19172144717348874,"6":0.0008064843924479681,"7":0.22998757050995772,"8":-0.014242705735273838,"9":0.01885526519544046,"10":0.19035206977889163,"11":-0.036071868270809576,"12":0.04587285621296034,"13":0.022462510406226675,"14":0.29454466238562466,"15":0.10301835693467119,"16":-0.10927852224036304,"17":-0.13692086217369817,"18":-0.17321524941738986,"19":-0.0859419984451522,"20":-0.46668089898408055,"21":-0.07128154206999625,"22":0.026816230307615218,"23":0.12029925138297733,"24":0.21524438305388457,"25":-0.11622960482000114,"26":0.15874396906455662,"27":-0.19224310731618305,"28":0.5677240335977276,"29":-0.0041256853221317375}},{"sx":1,"sy":1,"depth":30,"w":{"0":-0.047725271578406746,"1":0.01606375424535361,"2":-0.1571186709185134,"3":0.052104910503766394,"4":-0.05056476456418502,"5":-0.11567103268871465,"6":0.026784836727269605,"7":0.142373432838423,"8":-0.17374662399696097,"9":0.12218252468440445,"10":-0.0796897368661292,"11":0.016883079747396966,"12":0.005294619335397954,"13":-0.010326293923679083,"14":-0.0196437476998869,"15":-0.08804135911003699,"16":-0.030931261939286275,"17":0.21988711855273363,"18":0.08605219771229196,"19":-0.09020150894596905,"20":0.09622406851178278,"21":-0.14260685721226243,"22":-0.03501617275451256,"23":0.04161338985944253,"24":0.19598885293758012,"25":-0.12840028743556975,"26":-0.00031906153647278215,"27":0.10377119927473583,"28":0.03068910582386057,"29":-0.09441417889049585}},{"sx":1,"sy":1,"depth":30,"w":{"0":-0.015179176536331634,"1":-0.03938526779204573,"2":0.06737120537637216,"3":0.10798384066491455,"4":-0.04663393737871967,"5":0.10567790259258507,"6":0.006773159364361098,"7":-0.14564237860244977,"8":0.09574726013526946,"9":-0.04658134693759885,"10":0.07538573613807027,"11":0.014784892542509984,"12":0.04025482657054014,"13":-0.04927105107249078,"14":0.12223652288854414,"15":0.08433704379427832,"16":-0.2695426458605297,"17":0.1277011796383799,"18":-0.012003931783558273,"19":0.11729316529492602,"20":-0.14403248172864577,"21":0.07141145059865651,"22":-0.009962589541062787,"23":-0.05939739484403188,"24":-0.0131223806958953,"25":-0.016882667053620865,"26":0.008894472691295077,"27":-0.2825302858537054,"28":0.06246744373661936,"29":-0.060642489994728044}},{"sx":1,"sy":1,"depth":30,"w":{"0":-0.007351282753722617,"1":0.006727366496516618,"2":-0.06012947060572673,"3":-0.05110278743993728,"4":0.020345707984976803,"5":-0.0028073839205124285,"6":-0.05244108483037886,"7":-0.07234278996503596,"8":-0.040653740286284656,"9":0.02544695590358163,"10":0.009453945998201995,"11":0.06627704436495345,"12":-0.07014112898320501,"13":-0.0360519795350528,"14":0.03137549041699461,"15":-0.02234177781881034,"16":0.02157833379492812,"17":-0.006998318038475312,"18":0.0006063961451127616,"19":-0.02766112070702909,"20":-0.0704312966536442,"21":0.06357066775383126,"22":0.05475748977988198,"23":-0.04696907014177556,"24":0.024205511342346043,"25":-0.012178194416205615,"26":-0.023244391919994847,"27":-0.052570703632279656,"28":-0.051070331261652356,"29":0.008119613069194308}},{"sx":1,"sy":1,"depth":30,"w":{"0":-0.058381591129487424,"1":0.13802353839577922,"2":0.4761994854286571,"3":-0.025755269845446686,"4":-0.28403178460248263,"5":-0.24351149390797133,"6":0.5254085062316844,"7":0.3036373920765095,"8":-0.26160659745770537,"9":-0.16274872399760612,"10":0.2070389963423828,"11":0.015126342367624944,"12":0.055569475291782265,"13":-0.05982974475512226,"14":0.3527923328207158,"15":0.08538539214690655,"16":-0.28268590270884436,"17":-0.07986102467369348,"18":-0.3216624267172086,"19":-0.3137882786890548,"20":-0.07511611780334772,"21":0.19964420887090356,"22":0.13141419794447762,"23":-0.027874304232857892,"24":-0.4224526941256876,"25":0.019273425956420207,"26":0.16244335934176482,"27":-0.4162097535421562,"28":0.07301008635312681,"29":0.18062535678171213}},{"sx":1,"sy":1,"depth":30,"w":{"0":-0.002599012120025308,"1":0.32125283512417635,"2":0.10648580382858325,"3":0.049135568904064876,"4":0.06174460177702149,"5":0.03424483343105671,"6":0.2635210253193569,"7":0.03380849957258032,"8":0.2878204724476553,"9":-0.08671744835103608,"10":0.1432083277967413,"11":-0.02950512160645858,"12":-0.052952685531010873,"13":0.05339678852528857,"14":0.13160346637444853,"15":0.009300538727772117,"16":0.3946890524564199,"17":0.0190748977537397,"18":-0.022534158871430832,"19":0.13974926466135673,"20":-0.005475206562836067,"21":0.19452145259206777,"22":0.10486930995545428,"23":-0.024099266160577774,"24":-0.06617985169707281,"25":0.12441900036283862,"26":0.19475792161923902,"27":0.010057817324053685,"28":-0.08518329168011636,"29":0.2512775702114469}},{"sx":1,"sy":1,"depth":30,"w":{"0":0.020720835022708627,"1":-0.2570525608278943,"2":-0.19827392022814713,"3":-0.007428549357348174,"4":0.02143679393056939,"5":0.013803786596619799,"6":-0.08187747654506566,"7":0.07110769664786229,"8":0.1630023926898942,"9":0.022779716411899905,"10":0.07255094222391142,"11":0.03374865216532791,"12":-0.10473895248743535,"13":-0.03773679872849187,"14":-0.14059885373441036,"15":0.06424083591871926,"16":-0.42253455136478196,"17":0.025593672884760242,"18":-0.03945030313853717,"19":0.02229126006411921,"20":0.06835017620296874,"21":0.06368675820221965,"22":-0.040250718287470934,"23":-0.048412088490382255,"24":-0.021981142998323877,"25":0.0021661111558047303,"26":-0.018683315344786212,"27":0.04007518033008957,"28":-0.04403719586313062,"29":-0.09129707557787833}},{"sx":1,"sy":1,"depth":30,"w":{"0":0.034837569831602855,"1":-0.3696148905509038,"2":0.0018310550977594453,"3":-0.01726749637370292,"4":0.019847788220789857,"5":0.08656641100185018,"6":0.11896788880329927,"7":-0.02022204251178819,"8":-0.09183079840598184,"9":0.011045241306239203,"10":0.055388189135183064,"11":0.01912054592683607,"12":-0.0852221977340707,"13":-0.0038340969412923405,"14":-0.0581928419132243,"15":0.0007021352308097147,"16":-0.36852610872089997,"17":-0.05333657396385571,"18":0.12536267878768767,"19":0.34922851104317887,"20":-0.10554747098582286,"21":0.11074084337569108,"22":0.059196769255827834,"23":0.008920883024523108,"24":-0.031089006213420665,"25":0.07354565450594117,"26":0.3201803926385861,"27":-0.028092322846787084,"28":0.1383250518971005,"29":0.17928395496770777}},{"sx":1,"sy":1,"depth":30,"w":{"0":0.014030418942057957,"1":-0.0740972580253203,"2":-0.07472589740957032,"3":-0.03169154534374906,"4":0.06040072539277505,"5":0.02180331407979666,"6":-0.0555783479431931,"7":0.04205984655087515,"8":0.1371861306994678,"9":0.03555439697758403,"10":-0.07553565743821401,"11":-0.005161842364173298,"12":-0.022234744337517598,"13":0.009259061865752802,"14":0.08610960003097631,"15":-0.0704938000951875,"16":0.09439480216871769,"17":-0.14157405911538234,"18":0.09807924702908827,"19":0.1008430637134447,"20":-0.15427782594585926,"21":-0.0622200877484881,"22":-0.05067737320662906,"23":0.030018563167582907,"24":0.03799467460805661,"25":0.04253457738136849,"26":-0.05872048991137198,"27":0.08182418668269922,"28":0.08746285194205042,"29":-0.027586625331278928}},{"sx":1,"sy":1,"depth":30,"w":{"0":0.07045537309600257,"1":-0.0050404544617133895,"2":0.011126308568481427,"3":-0.007683145276053355,"4":-0.057951533130422186,"5":-0.08344209974350945,"6":0.011560047630575073,"7":0.00008295535478932279,"8":-0.01490870529959061,"9":-0.009286814563822177,"10":0.006090931462593053,"11":0.0077548217598997484,"12":-0.041727834540092296,"13":-0.07580408721821555,"14":0.01168214821880851,"15":0.025056705382054602,"16":0.08395059670472799,"17":-0.039278643850026204,"18":0.0269854342095999,"19":0.008349844856697897,"20":0.03856500708805622,"21":0.028879740795034678,"22":-0.001175728136787291,"23":0.044708033853371604,"24":0.015710246822420743,"25":-0.02097687467584307,"26":-0.04327144188429935,"27":-0.005810647884861204,"28":-0.026356518923219698,"29":-0.07976739452393228}},{"sx":1,"sy":1,"depth":30,"w":{"0":0.06607115962000763,"1":0.005874951879043391,"2":0.20492719510979837,"3":0.16895041672580827,"4":0.23340093713277416,"5":0.29914933798550886,"6":0.11041920808395782,"7":-0.7194953429822961,"8":-0.00719378004914815,"9":-0.28658714051030937,"10":0.0299274984425453,"11":-0.020649835778988462,"12":-0.015014573001183418,"13":0.02459837068523376,"14":-0.5203148695110732,"15":-0.027019282681193316,"16":0.18483287439061047,"17":-0.20642116747546374,"18":0.3466007441438958,"19":0.23599519176991876,"20":0.00883898545818413,"21":0.05976219044238435,"22":0.07051421645847464,"23":-0.05010571056958311,"24":-0.24934389664916687,"25":0.19324548294485702,"26":0.03403957692309499,"27":-0.19771892660410714,"28":-0.15736392159538387,"29":0.12467086593761562}},{"sx":1,"sy":1,"depth":30,"w":{"0":-0.04288735914877863,"1":0.15162753103543367,"2":0.09144019573307006,"3":-0.03076660303274336,"4":-0.09027613287512554,"5":-0.026895626069232837,"6":-0.061163826810451655,"7":-0.1401722133375881,"8":0.01025245959113875,"9":-0.00011817043296349732,"10":0.059231034768036685,"11":-0.030892362968036102,"12":0.09059158881993908,"13":-0.02947761990427474,"14":0.13000877263592023,"15":-0.020553546893027252,"16":-0.05991935660032015,"17":0.025087164007102012,"18":-0.11007050298181313,"19":0.06563731375665667,"20":0.08464645207001058,"21":-0.03325834802440176,"22":0.08089581696749508,"23":-0.028015659419141692,"24":0.08448636554354085,"25":-0.0057077000466802755,"26":-0.02331130068355713,"27":0.08285890338361032,"28":-0.040351865013349086,"29":0.08433096086901572}},{"sx":1,"sy":1,"depth":30,"w":{"0":0.03070244416410867,"1":-0.007976611987446874,"2":0.007410521944848465,"3":0.06540544496261844,"4":0.04413238710830326,"5":0.4660218148999534,"6":0.0160030655525185,"7":-0.9802568995195426,"8":-0.010896468709301686,"9":-0.34258259211382897,"10":0.1861173378931834,"11":-0.02256306902117918,"12":0.02845342529087077,"13":-0.039335324217354715,"14":-0.021570457590277727,"15":-1.3950289380205358,"16":0.027229003783484692,"17":-0.05276266687678002,"18":0.11421502444863726,"19":0.21316618132913553,"20":0.5561173083466855,"21":-0.12505803506803564,"22":-0.04357341753992398,"23":-0.14707156198785165,"24":-0.04266427835113319,"25":-0.0015227241765682113,"26":0.015441695565015973,"27":-0.07255301509143372,"28":-1.0118855687684067,"29":0.052098284579492386}},{"sx":1,"sy":1,"depth":30,"w":{"0":0.009522811508199563,"1":-0.020638183131863212,"2":-0.210611815708877,"3":0.017453108750289575,"4":0.11920506839234594,"5":0.08035799465525535,"6":-0.05572152958640464,"7":0.04895997768703305,"8":-0.1321794400121191,"9":0.06730076965973575,"10":-0.0825345068579573,"11":0.04229539126650348,"12":0.0002177189817377894,"13":0.05267649863091615,"14":-0.24061714378739324,"15":0.039561699683852425,"16":-0.019256999955695048,"17":0.19801258119238307,"18":0.01695839404388666,"19":0.2176369245057911,"20":0.11710263022386534,"21":-0.07637914266974329,"22":0.021207791587874673,"23":-0.08099626115794821,"24":0.14586074768459178,"25":-0.01315160697644073,"26":-0.14663595648569752,"27":0.0984626386577373,"28":-0.14941898698824166,"29":0.06481357950645654}},{"sx":1,"sy":1,"depth":30,"w":{"0":-0.041696199112730835,"1":0.4426677795723217,"2":-0.06418768066670244,"3":-0.01831394768598187,"4":0.11792224981646458,"5":-0.06490393525542684,"6":-0.13787160798543355,"7":-0.009042487814965309,"8":0.13907314269704704,"9":0.05382896738350768,"10":0.045286524796869655,"11":0.0187384645310613,"12":0.04169339825052081,"13":0.05497527710173859,"14":0.22353097287972515,"15":-0.08351338207680416,"16":0.5609832241314049,"17":-0.03657637301502398,"18":0.02461201967342962,"19":-0.041556145218988524,"20":0.009269689594763564,"21":0.04047595815236455,"22":0.09842640178206702,"23":0.02808481446386737,"24":0.18173172032822482,"25":0.04749520874072699,"26":-0.02344102581365801,"27":0.10798620103710152,"28":0.10871337947804481,"29":-0.09531223881496764}},{"sx":1,"sy":1,"depth":30,"w":{"0":-0.03942990995178552,"1":-0.018577022604267666,"2":-0.012868191819507789,"3":0.005302495527355301,"4":0.0007473470018197509,"5":-0.04686694820019484,"6":-0.04708540354116167,"7":-0.013862243099748022,"8":-0.01920964271753027,"9":0.009359706993505969,"10":0.012458305813385032,"11":0.0019870862508947506,"12":-0.06518389774438191,"13":0.059697225079118746,"14":0.08073872664226922,"15":0.014143970135578695,"16":-0.02336410950659914,"17":0.02370823833327536,"18":0.018048617682437363,"19":0.015268936714815495,"20":-0.03263175704826145,"21":-0.017290238073856757,"22":-0.08091292632343272,"23":0.05164468301586698,"24":-0.028098859145174952,"25":0.04640678178700977,"26":-0.009229240312151797,"27":0.009355345770949574,"28":0.01870383301937792,"29":-0.07499883037648691}},{"sx":1,"sy":1,"depth":30,"w":{"0":-0.04890844878619663,"1":-0.0850616869613496,"2":0.09172585219040746,"3":0.06345701706162578,"4":-0.019225365509267886,"5":-0.01220544552706666,"6":-0.0687105740738347,"7":-0.015311285053455496,"8":-0.12840555090071,"9":0.013305580243638546,"10":-0.07710148131085798,"11":0.01812220251382041,"12":0.045291321344612306,"13":0.0033003424438407553,"14":-0.016355072365608774,"15":0.09057796597079304,"16":0.015484384815336164,"17":0.04275236218781328,"18":0.06965756712903548,"19":-0.02621168952026323,"20":-0.024500195204724934,"21":-0.032551175447529265,"22":-0.017279703084111853,"23":0.04383097165652191,"24":-0.01515907118149495,"25":-0.03748027315976026,"26":0.04087739524950175,"27":0.03016802608497136,"28":0.00682995183734204,"29":-0.06685445210225162}},{"sx":1,"sy":1,"depth":30,"w":{"0":-0.061149135891136686,"1":0.034430145822293874,"2":-0.1059343249461986,"3":0.07989755486841048,"4":-0.022017880976381087,"5":-0.020382006768507106,"6":-0.007829834438390701,"7":-0.052747261504818746,"8":-0.023013635885926163,"9":-0.012688589748841055,"10":0.08011057410556784,"11":-0.011334343871216002,"12":-0.06027988424933095,"13":-0.010208120918593518,"14":0.08866656869263138,"15":0.016432028943011892,"16":-0.11954344503645384,"17":-0.18488105149105938,"18":0.008206031371712596,"19":0.0031539661796411637,"20":-0.13588097023458867,"21":-0.1502598074086763,"22":0.005342695152083777,"23":-0.022054516083711347,"24":0.07290325953821937,"25":0.023214071797773437,"26":0.009800448349814092,"27":0.09586169668286816,"28":-0.04709088708781542,"29":0.06399305531324725}},{"sx":1,"sy":1,"depth":30,"w":{"0":-0.012499391737212545,"1":0.03220399345576981,"2":0.0010618080321392542,"3":0.05518252578989009,"4":0.02549231863169904,"5":0.0009539255058914868,"6":-0.012266457447559331,"7":0.0533405620180233,"8":-0.030939625718546963,"9":0.032018762613885414,"10":-0.021940071698396887,"11":-0.08146548114788608,"12":0.03703464537580702,"13":0.03949617293604021,"14":-0.11261134261044321,"15":0.1349740023679885,"16":0.0338596482595141,"17":-0.04531283406307475,"18":0.04630760067313867,"19":-0.03757169277671376,"20":0.03095968995461749,"21":-0.011838413238226424,"22":0.036589782285362284,"23":0.026758004059268238,"24":0.10095005713991109,"25":0.03530886938088838,"26":-0.08913221226928833,"27":0.015560553546420847,"28":0.010611289226862742,"29":-0.08213488064938808}},{"sx":1,"sy":1,"depth":30,"w":{"0":-0.0039028113603746684,"1":-0.5973696258324387,"2":-0.1322540471619693,"3":-0.00778144200205076,"4":-0.06881052075995482,"5":-0.0535438267835311,"6":-0.0057955418123466365,"7":0.1568418945329995,"8":-0.2694607794155884,"9":0.07496278276833512,"10":-0.1941036195665175,"11":-0.01342163737115892,"12":-0.0314364740335005,"13":-0.05900466393578945,"14":-0.04871188846978013,"15":0.015343182302140497,"16":-0.010798698617614568,"17":-0.134759048950448,"18":0.16563328001888275,"19":0.01075113715412274,"20":0.004774354732919955,"21":-0.03278358130973588,"22":-0.1252282107734217,"23":-0.05022096239866053,"24":0.06110319971804411,"25":-0.024396733805491344,"26":0.3169957452633911,"27":0.1100305531129086,"28":0.09178860243285197,"29":-0.09935765423885257}},{"sx":1,"sy":1,"depth":30,"w":{"0":-0.09474201016055964,"1":-0.025474418764155363,"2":-0.01004910597642558,"3":-0.008023366303517203,"4":0.03359305256807413,"5":0.0672767777114276,"6":-0.0750149055444608,"7":-0.023801639172220758,"8":-0.0202579456860456,"9":-0.047230994800604706,"10":-0.03689979839889701,"11":0.050305268480802634,"12":-0.015215148752586888,"13":-0.011727892395138684,"14":-0.10181986116422756,"15":0.1353311440086285,"16":0.22823976313852362,"17":-0.02834790983587265,"18":-0.02747007816075152,"19":0.0421564960117225,"20":-0.04300554188417854,"21":-0.0406031981666247,"22":0.0047955129635175175,"23":0.007286383913910033,"24":0.03584441064959233,"25":-0.021128766526750706,"26":-0.16968378161809317,"27":-0.10008618626601112,"28":-0.08300595249159884,"29":0.015141679453700799}},{"sx":1,"sy":1,"depth":30,"w":{"0":-0.03075860115995469,"1":-0.025754754014636252,"2":-0.006970400175448787,"3":-0.017144729098491653,"4":-0.04843051707334712,"5":-0.03559687195789013,"6":-0.05098104171559702,"7":0.0455055278733984,"8":0.04776964772981321,"9":-0.03137066756930066,"10":0.05268044840379956,"11":0.03305817311953465,"12":-0.10722838665101175,"13":0.0008915416912849393,"14":-0.017194753485630144,"15":-0.019065247781101066,"16":-0.011252396612779816,"17":-0.10369535001177697,"18":0.015045106089506075,"19":-0.0750122928154306,"20":-0.02726216682979369,"21":-0.03439937367320854,"22":0.014184377323915871,"23":-0.0018632218398325706,"24":-0.00860209904468707,"25":0.02061059721306687,"26":-0.04724522524408717,"27":0.0511775689503556,"28":-0.04546035566105828,"29":-0.04031697501156353}},{"sx":1,"sy":1,"depth":30,"w":{"0":0.055813836755059625,"1":-0.06217427574877973,"2":-0.16993571822787415,"3":0.09270171035403454,"4":0.1620143065437136,"5":0.04551706601491858,"6":0.08254249535355543,"7":-0.13926809505332785,"8":-0.10607848151689248,"9":-0.0013647883137692142,"10":0.10615772839770586,"11":0.036183186001994334,"12":-0.009490700107968722,"13":-0.03544534934123224,"14":0.012747941863443885,"15":-1.1485311305660721,"16":-0.2613959600494769,"17":0.604261682456446,"18":-0.05264910494310042,"19":0.0499618564879145,"20":0.17097659195245885,"21":-0.055125698098506294,"22":0.01184390870803757,"23":-0.08537199283719872,"24":-0.02438727932386999,"25":-0.08807088057582618,"26":0.4730820522279585,"27":0.3190236146141548,"28":-0.30716224285917776,"29":0.031363686011337745}},{"sx":1,"sy":1,"depth":30,"w":{"0":0.10117729282428116,"1":-0.16371551945820026,"2":-0.05911078391854324,"3":0.0782392218148288,"4":0.003970274275616335,"5":-0.03811543885173446,"6":-0.009691972722906535,"7":-0.04128852811711196,"8":-0.21376260787813328,"9":-0.03819504427160116,"10":-0.03325759928363629,"11":-0.06606110045830192,"12":-0.029873386107410724,"13":0.03311236242095914,"14":-0.015525515803412568,"15":-0.016718428970821902,"16":0.008365323768445848,"17":-0.08618319296349605,"18":0.057527224000024066,"19":0.021649812079677744,"20":-0.01488726394810501,"21":-0.06200682602443426,"22":-0.04355311846881769,"23":-0.03917243870718361,"24":0.007228511271318189,"25":-0.04940522952742784,"26":0.16795591012148578,"27":0.05457097603580621,"28":-0.02064908707599938,"29":0.017692279949342637}},{"sx":1,"sy":1,"depth":30,"w":{"0":0.016899472317880544,"1":0.7286442972801072,"2":0.06542324594876726,"3":0.027658128858518736,"4":-0.012981284576524595,"5":-0.08750338381773848,"6":0.09245935465100033,"7":0.12361331601239267,"8":-0.1362582445377684,"9":-0.15165037618809124,"10":0.02516894108190571,"11":0.009821776369489922,"12":-0.030080915744524598,"13":-0.0169538279026818,"14":0.17335698990566986,"15":0.029524662241447508,"16":-0.7545689923839193,"17":-0.31652407549231326,"18":0.3898666674990457,"19":-0.10383429655823108,"20":0.12490860159775201,"21":-0.13029298368801995,"22":-0.1535472949519669,"23":0.0750758917464992,"24":-0.037438722945419264,"25":0.007414890404837562,"26":0.37857512858043507,"27":0.0881384771692132,"28":-0.005578827234012486,"29":0.03251297349927626}},{"sx":1,"sy":1,"depth":30,"w":{"0":-0.0262472950559032,"1":-0.01806798404703224,"2":-0.01020554188106802,"3":-0.01655689059573128,"4":0.020833380597463487,"5":-0.051378757713225344,"6":0.03956770067714573,"7":0.01870952473609411,"8":0.00772500962625593,"9":-0.011824106809889236,"10":-0.052325844147865,"11":-0.015195786045502894,"12":-0.028842791918518705,"13":-0.03086392493935357,"14":0.029039893912775325,"15":0.03479196789632835,"16":-0.053477468526288686,"17":-0.04039121557544467,"18":0.042914552698218686,"19":0.0024086503701772903,"20":-0.04005081684714712,"21":-0.04207359278214698,"22":-0.04844172896102443,"23":-0.010483304588366762,"24":-0.0696503479255641,"25":0.04680620735800801,"26":-0.030699305360531618,"27":-0.05976672302641946,"28":-0.06266247482014206,"29":0.03419022192694126}},{"sx":1,"sy":1,"depth":30,"w":{"0":0.009905761376825245,"1":-0.058141602405993274,"2":0.07886563263902412,"3":-0.011597850323869154,"4":0.024307403716455515,"5":-0.012252285969750155,"6":-0.06826980919838152,"7":-0.4208004791856298,"8":0.2372007014782564,"9":-0.21108932337470138,"10":-0.04169878152703699,"11":-0.047334340359960425,"12":0.006875293945575246,"13":0.0002284448868997627,"14":0.1363983672019471,"15":-0.12596409436053568,"16":0.2258902463580184,"17":-0.0736179732944112,"18":0.06634801102897041,"19":-0.12059215421212104,"20":0.2957586896448429,"21":0.14699869060846021,"22":-0.0622234859445031,"23":-0.0007267750425896164,"24":-0.0825340578914512,"25":-0.09108489618337776,"26":0.07325404757736712,"27":0.00024150329561026032,"28":-0.03926313229217248,"29":0.08373750542573165}},{"sx":1,"sy":1,"depth":30,"w":{"0":-0.0008654332224266508,"1":0.2810755025487234,"2":-0.023846306213034178,"3":-0.015707370946033007,"4":0.03232295098530417,"5":-0.0420660323825882,"6":-0.02815458052311597,"7":0.10980718706690272,"8":0.16133167618069613,"9":0.061658429666347894,"10":-0.05647821889619514,"11":0.024950615129435378,"12":-0.012090701902920725,"13":0.000268282251364769,"14":-0.030405374323371957,"15":0.0029333859864593154,"16":0.18792500937455517,"17":0.11826626209002511,"18":-0.045016072665688474,"19":-0.041285593189587265,"20":0.07130232202192043,"21":0.030659454575217113,"22":0.031684765286579084,"23":0.05960418469919425,"24":0.013192966456790252,"25":-0.04453717582914152,"26":-0.08180924999821172,"27":0.06432358883586563,"28":-0.02071821698639821,"29":0.09758535115892264}}],"biases":{"sx":1,"sy":1,"depth":30,"w":{"0":0.15924623003178287,"1":0.0317792342350921,"2":0.13578552446696046,"3":0.011902655389540764,"4":0.16467953961157691,"5":0.08687279068620801,"6":0.07897533086825126,"7":0.417376499699676,"8":0.138147875641722,"9":0.7055545501179115,"10":0.004934919588173471,"11":0.10575840955056574,"12":0.6407717422483021,"13":0.11567534947108472,"14":0.06427115271379326,"15":0.2955721189407584,"16":-0.026782702192382535,"17":0.07723009984850117,"18":0.11862914524820878,"19":0.14794625133941308,"20":0.12249516785268738,"21":0.15795048187615926,"22":0.08160622217294394,"23":0.08397200046392589,"24":0.3613219359489946,"25":0.18532813836882708,"26":0.21173852423665054,"27":0.08650886887879154,"28":-0.08821505210343136,"29":-0.07619020590550103}}},{"out_depth":30,"out_sx":1,"out_sy":1,"layer_type":"relu"},{"out_depth":3,"out_sx":1,"out_sy":1,"layer_type":"fc","num_inputs":30,"l1_decay_mul":0,"l2_decay_mul":1,"filters":[{"sx":1,"sy":1,"depth":30,"w":{"0":0.19185365220577527,"1":-0.4655887346283555,"2":-0.7055704925560865,"3":0.0030560486892924643,"4":0.1874012825576413,"5":-0.006849183660835845,"6":-0.5752064552159226,"7":-0.298977649546993,"8":0.49039944757227905,"9":0.7191716717259854,"10":-0.16591045714642955,"11":0.07048049404710852,"12":0.429213915300308,"13":-0.10750146233407414,"14":-1.7462602577149324,"15":0.2700124462109917,"16":-0.615940257044822,"17":-0.05245404957807268,"18":0.10845470075343086,"19":0.02391816604439308,"20":0.12480516135106559,"21":0.6776541123082765,"22":-0.08967617336304633,"23":0.02133733623757076,"24":0.3977633331689915,"25":0.3004362735316088,"26":-1.0616402108344323,"27":0.012027049777412827,"28":-0.5730638824020313,"29":-0.3740861092577847}},{"sx":1,"sy":1,"depth":30,"w":{"0":-0.42325964930542115,"1":-0.2989188152603791,"2":-0.04272548470613515,"3":0.282200147604576,"4":-0.40193345077155684,"5":0.03703461782051054,"6":-0.4952560377466857,"7":0.2848357213967241,"8":-0.09503368446612773,"9":-0.20344451682933762,"10":-0.14515054524650461,"11":0.047858488849208736,"12":0.7180950829242958,"13":0.0576213064803308,"14":0.18773291886216276,"15":0.4212521705963703,"16":0.24980296204533345,"17":0.01781897264388178,"18":-0.08516732279968356,"19":0.04365962143981996,"20":0.14497928822300274,"21":-0.46509693558677934,"22":0.2253165396061251,"23":-0.010510183070009452,"24":0.7753576175339966,"25":-0.10719225690403322,"26":0.24943213041886117,"27":-0.02088090351047781,"28":0.14393408626515322,"29":0.2070130964126064}},{"sx":1,"sy":1,"depth":30,"w":{"0":0.4691937811145356,"1":0.5809319526134146,"2":0.8300418236275205,"3":-0.4206453274373763,"4":0.2864801782029037,"5":-0.04856665772472887,"6":1.0597316008241928,"7":0.7222757092163814,"8":-0.2879212181017385,"9":0.3959125963923927,"10":0.25442955922139227,"11":0.017427488009102446,"12":-0.9384909943039892,"13":0.30485306599030837,"14":1.2551494923254911,"15":-0.23163389914993504,"16":0.48456017448525884,"17":-0.021126776826310048,"18":-0.15000314349454258,"19":0.30794302597357437,"20":-0.0899535100925255,"21":-0.0979082266535178,"22":-0.24654356357650706,"23":-0.017612984348995064,"24":-1.2186331300867261,"25":0.07724449616038248,"26":0.654732889533098,"27":-0.04146709015220709,"28":0.3631964271647035,"29":0.049749299910223005}}],"biases":{"sx":1,"sy":1,"depth":3,"w":{"0":0.8442796688104591,"1":0.3250314919853403,"2":0.8521377775295614}}},{"out_depth":3,"out_sx":1,"out_sy":1,"layer_type":"regression","num_inputs":3}]}