{"layers":[{"out_depth":15,"out_sx":1,"out_sy":1,"layer_type":"input"},{"out_depth":30,"out_sx":1,"out_sy":1,"layer_type":"fc","num_inputs":15,"l1_decay_mul":0,"l2_decay_mul":1,"filters":[{"sx":1,"sy":1,"depth":15,"w":{"0":-0.08779756751147988,"1":0.015855934126390015,"2":-0.019688679492623245,"3":0.011605561087062566,"4":-0.05874191072559982,"5":0.0031304921568102917,"6":0.1018781539429717,"7":0.0039759784068336525,"8":-0.020305409512147116,"9":-0.03434189465453321,"10":0.00875832473853038,"11":-0.036390281529651645,"12":-0.063371523845431,"13":-0.043558989041961836,"14":-0.02448595389607811}},{"sx":1,"sy":1,"depth":15,"w":{"0":-0.04075030470519906,"1":0.0014099741633975965,"2":-0.005385034999864395,"3":-0.0015033405639960638,"4":0.38516054538716415,"5":0.33783720109256565,"6":0.038311952811888504,"7":-0.006559706246568463,"8":-0.002441575598849011,"9":-0.00842298763691751,"10":0.4535121291121418,"11":0.4414660204603028,"12":-0.613379579314734,"13":-0.6167264980068591,"14":-0.6213567492852162}},{"sx":1,"sy":1,"depth":15,"w":{"0":0.020981272829785725,"1":-0.0061118131711259925,"2":-0.021868707611385853,"3":-0.0674651549094393,"4":0.33638761409628765,"5":-0.32867726085819493,"6":-0.015356428173355875,"7":-0.0053783969103896765,"8":-0.0034144055655866115,"9":-0.04418020966610173,"10":0.34603992918307036,"11":-0.31644233695171786,"12":0.1685600501138012,"13":-0.20523112058849963,"14":0.1527487706788399}},{"sx":1,"sy":1,"depth":15,"w":{"0":-0.02608762637266829,"1":0.015118186609905633,"2":0.009911188370356965,"3":-0.07152367089424157,"4":-0.06760464795010723,"5":-0.06397911160444732,"6":0.029000560982408368,"7":-0.014253652622353556,"8":-0.025007213145080052,"9":-0.0020785126908528257,"10":-0.06376170284351913,"11":-0.19970878390700122,"12":-0.055338661866995466,"13":0.18510052801462176,"14":-0.024433305817770704}},{"sx":1,"sy":1,"depth":15,"w":{"0":-0.001261982906263442,"1":0.01397304253072842,"2":0.007241234010899705,"3":0.0662504605564963,"4":-0.1236535792596579,"5":-0.25923188017933785,"6":0.0023872145087697138,"7":-0.020674035075824878,"8":0.005365677615783975,"9":0.022389093796340763,"10":-0.11715956297876938,"11":-0.33582963047606784,"12":0.30954739123295577,"13":-0.08673957864934924,"14":-0.0955098508480929}},{"sx":1,"sy":1,"depth":15,"w":{"0":0.1375694326572909,"1":-0.0062811830723816095,"2":0.11616886701559559,"3":0.11743958601243337,"4":-0.06979452105333675,"5":-0.36648892235383806,"6":-0.1315920731530408,"7":-0.005648380038841775,"8":0.07091820543945894,"9":0.1330570297986001,"10":-0.02534515837630877,"11":-0.38925620848487635,"12":0.27689421740397674,"13":0.17699439726925642,"14":0.2272052363786979}},{"sx":1,"sy":1,"depth":15,"w":{"0":0.004123906646046768,"1":0.008479178018036805,"2":-0.022197909827827485,"3":0.0360761630329792,"4":-0.2758832703809713,"5":0.30743801450922653,"6":-0.00375529455779508,"7":0.03196918544743759,"8":0.009990820857604539,"9":0.06889412912369157,"10":-0.33260073851737587,"11":0.31667889143945627,"12":0.20254970661336177,"13":0.1723627201848583,"14":-0.20608942634221747}},{"sx":1,"sy":1,"depth":15,"w":{"0":0.004425363463732724,"1":0.010891976453933213,"2":-0.012910544458330415,"3":-0.4026336394021638,"4":-0.010516607994862362,"5":1.0072446876537005,"6":-0.0021699620428540962,"7":0.009794087210860966,"8":-0.013034906847058913,"9":-0.46493403731926264,"10":0.0008085621833988353,"11":0.657898267108952,"12":-0.24625263145658105,"13":-0.24742636036577068,"14":-0.24286857439690873}},{"sx":1,"sy":1,"depth":15,"w":{"0":0.008089050790973667,"1":0.3358278998561717,"2":-0.0929944689079554,"3":0.005001570057682791,"4":0.027305618344707697,"5":-0.16069510093874367,"6":0.015525480474751862,"7":0.3862750777787446,"8":-0.11507631080207678,"9":0.04527039306770596,"10":-0.022936264764201308,"11":-0.3309290633329132,"12":0.25095792459419547,"13":-0.2063832569188555,"14":-0.12502792500172347}},{"sx":1,"sy":1,"depth":15,"w":{"0":-0.000016432954446907313,"1":-0.05400984033544062,"2":-0.024459828447460447,"3":-0.19427515170362208,"4":0.02792846979000363,"5":0.41189312066496975,"6":0.0020644140577534146,"7":-0.039092163109536546,"8":0.017978249037113685,"9":-0.18057752111265807,"10":0.012474410227472135,"11":0.22395616746453467,"12":-0.07634255006514584,"13":-0.060309224841241904,"14":-0.19779504098758924}},{"sx":1,"sy":1,"depth":15,"w":{"0":0.06048153243922357,"1":-0.11135054661582608,"2":0.18923847302649321,"3":-0.04945643366416518,"4":-0.017092102941185384,"5":-0.13573113037291554,"6":-0.06551313326332184,"7":-0.09213827259208329,"8":0.17604921277430793,"9":0.008689154530914086,"10":0.017692981730911595,"11":-0.22648904667949052,"12":0.2491078353692518,"13":-0.1072916708540003,"14":0.0018197476666342385}},{"sx":1,"sy":1,"depth":15,"w":{"0":0.06427301166948335,"1":-0.027768881708834237,"2":0.014747512366889474,"3":-0.047483512584283176,"4":0.0298346553099308,"5":-0.07973003585701484,"6":-0.022765221509612025,"7":0.008912949771334264,"8":-0.1049996045105524,"9":-0.05171043762681051,"10":0.06185633086320644,"11":-0.04672732133623725,"12":-0.05674139539724641,"13":-0.10739782032516154,"14":-0.01111036228308878}},{"sx":1,"sy":1,"depth":15,"w":{"0":-0.00852264418087871,"1":-0.13370627305293095,"2":-0.0577200670036961,"3":0.06327227804948893,"4":0.03432737684484127,"5":0.00923187600502513,"6":-0.0931256638485985,"7":-0.015101901902227637,"8":-0.03668861095208152,"9":-0.0322613532507642,"10":-0.027391813569406006,"11":-0.04950520392254292,"12":-0.06657363828768827,"13":-0.06298190777721314,"14":-0.0041783379664915}},{"sx":1,"sy":1,"depth":15,"w":{"0":-0.05396370233390262,"1":-0.08540335467153276,"2":0.08351649439806448,"3":0.05155096255282301,"4":-0.06592468029052018,"5":-0.031918866701108925,"6":-0.01739551856338741,"7":-0.019294906083372927,"8":-0.09015714052662281,"9":-0.011652124050517874,"10":-0.10852395775850243,"11":-0.032925163223264664,"12":0.03868547948310069,"13":0.038497482065554506,"14":0.01213681789933798}},{"sx":1,"sy":1,"depth":15,"w":{"0":0.036179967943567565,"1":-0.5036589810720088,"2":0.04051269386528123,"3":-0.012455019186975934,"4":-0.028194898934195443,"5":-0.3183974472176026,"6":-0.01930943155266397,"7":-0.4022993370676036,"8":0.02967691219368936,"9":0.038466825126765254,"10":0.03412091116936586,"11":-0.42207294430281517,"12":0.262343908968107,"13":0.25546439674013466,"14":0.03325520340467397}},{"sx":1,"sy":1,"depth":15,"w":{"0":0.005607780291144433,"1":0.05492329040712365,"2":-0.3687958400525102,"3":0.05267344515184382,"4":-0.01628509882719606,"5":-0.6560830465092958,"6":-0.004895624120359039,"7":-0.03572455418133772,"8":-0.49584555353103726,"9":0.008562524768181683,"10":0.018285293211442847,"11":-1.0762648567381004,"12":0.6547320994131439,"13":0.6435109628172752,"14":0.6408992547625074}},{"sx":1,"sy":1,"depth":15,"w":{"0":-0.022269746829918856,"1":0.6458114971858783,"2":0.003176176471964875,"3":0.012722127359826956,"4":-0.01970963848749041,"5":-0.5709248698854449,"6":0.013629078464178107,"7":0.6478597521558962,"8":-0.006938170020419606,"9":0.011631988540659359,"10":0.024154798217601546,"11":-0.6750031761747773,"12":-0.3278619434415545,"13":0.18878421901261555,"14":-0.11524534661562981}},{"sx":1,"sy":1,"depth":15,"w":{"0":-0.047136724202997596,"1":-0.029564564208909776,"2":0.0006914841235683758,"3":-0.14915767524105358,"4":0.16850396810995524,"5":0.4085071301013433,"6":0.04532902946030583,"7":0.03298794034718807,"8":0.028079929299159742,"9":-0.022460581974010796,"10":0.09320113244582347,"11":0.45607864221908545,"12":0.029942580612777738,"13":-0.4335787008789207,"14":-0.42586275983784583}},{"sx":1,"sy":1,"depth":15,"w":{"0":0.039318597254097386,"1":-0.2827837701611281,"2":0.09335964364956427,"3":-0.09794005170273293,"4":0.10562231876437983,"5":-0.08921228665277807,"6":-0.03252392833843712,"7":-0.2469999023960921,"8":0.07553168339271826,"9":-0.082251617391611,"10":0.08176446944796623,"11":-0.13029522022484785,"12":-0.06980294246172075,"13":0.5230290932752898,"14":-0.07859279673319088}},{"sx":1,"sy":1,"depth":15,"w":{"0":0.05586969739927429,"1":0.04973880115254127,"2":-0.004654086997583076,"3":-0.08339553790732694,"4":0.1815285374399364,"5":-0.25323552596972243,"6":-0.049476125715603045,"7":0.05651279948465896,"8":-0.021536833774662763,"9":-0.12097199591330797,"10":0.1941444881241491,"11":-0.06644636344733655,"12":0.34213561377775437,"13":0.22870155919982985,"14":0.26385679927750105}},{"sx":1,"sy":1,"depth":15,"w":{"0":0.2436392178300845,"1":-0.019987992058044607,"2":-0.07125289611079788,"3":0.19410411715821693,"4":-0.0012501561998097307,"5":0.27259771720594517,"6":-0.2438129958911513,"7":-0.03505458317331934,"8":-0.03527213626302744,"9":0.20702434604447403,"10":-0.011587740153729055,"11":0.696782162331849,"12":-0.3265155688115252,"13":-0.3067678425721558,"14":-0.3232260194547065}},{"sx":1,"sy":1,"depth":15,"w":{"0":-0.01859530131513592,"1":-0.09002555137078297,"2":0.022911668952114574,"3":0.04014956072427254,"4":-0.062013862942054056,"5":0.16262268309775896,"6":0.01627690209679647,"7":-0.15344650693865708,"8":-0.031400171458142036,"9":0.02577636571286889,"10":-0.05885996912911884,"11":0.1880208165435068,"12":0.3326489058866236,"13":0.026166032977166482,"14":-0.08530269530130151}},{"sx":1,"sy":1,"depth":15,"w":{"0":0.015495855339535108,"1":-0.08054681514494738,"2":-0.07031354350126753,"3":-0.08194750384761977,"4":0.01787969772143083,"5":0.07182432245477169,"6":-0.01440665417267438,"7":-0.04664211300406356,"8":-0.04843718982872126,"9":-0.13522256427584306,"10":0.10830984424232824,"11":0.04456641891933443,"12":0.2567569239784011,"13":-0.0008854223794337257,"14":0.02515927532153364}},{"sx":1,"sy":1,"depth":15,"w":{"0":-0.2319922357321912,"1":-0.007855430417583305,"2":0.004489615398295321,"3":0.016739496320613015,"4":-0.020079717587751986,"5":-0.1166804122825489,"6":-0.0780400766152311,"7":0.00233050130791249,"8":-0.0317516380631142,"9":-0.057277512529466966,"10":0.032608257523442145,"11":0.12521938952385903,"12":-0.04341508885666486,"13":0.03342104971423632,"14":0.06606694609364933}},{"sx":1,"sy":1,"depth":15,"w":{"0":0.011886014745857869,"1":-0.04062699142399133,"2":-0.011735863347579286,"3":-0.15988046103274625,"4":0.2623786165842441,"5":0.3644513148778753,"6":-0.013310141182802257,"7":0.013391404002631545,"8":0.006648800882634194,"9":-0.13243501070407349,"10":0.21549839863218803,"11":0.08438060740833168,"12":-0.23634240265777046,"13":0.06567604068194889,"14":-0.2887171894739333}},{"sx":1,"sy":1,"depth":15,"w":{"0":0.03734039028764176,"1":-0.06713467014654631,"2":-0.10747460320320827,"3":0.0894466584549619,"4":-0.10699773312175917,"5":0.08117441098528225,"6":-0.04971245791589546,"7":-0.06507133172026021,"8":-0.0626297802653344,"9":0.13814807153779873,"10":-0.11164183429666254,"11":0.022866409383970537,"12":-0.06209716067608014,"13":-0.10298831583723737,"14":0.16772605368837806}},{"sx":1,"sy":1,"depth":15,"w":{"0":-0.057333916823540984,"1":-0.0790705740971276,"2":-0.031349417536326536,"3":0.10425697928854182,"4":-0.006646297337579226,"5":0.5892610543959017,"6":0.05810439399873674,"7":-0.10358462100656742,"8":0.031744167674269935,"9":0.10103193290506997,"10":-0.03155229464123021,"11":0.27883502042873265,"12":0.005127170136559653,"13":0.42320333274633626,"14":0.24741088975053577}},{"sx":1,"sy":1,"depth":15,"w":{"0":-0.034697618144136744,"1":-0.03056274594282989,"2":0.003527113009021343,"3":-0.07166134422024091,"4":0.13405070283602413,"5":0.27926855102024273,"6":0.0334172519684567,"7":0.0026457545987178697,"8":0.016222365396873065,"9":-0.06263359048990114,"10":0.2036719899755737,"11":0.4622356436842392,"12":-0.4028766401370182,"13":-0.02558932187789755,"14":0.06511236812268083}},{"sx":1,"sy":1,"depth":15,"w":{"0":-0.9960819512445267,"1":-0.002055076317855886,"2":0.02563893756456155,"3":0.14237977995700712,"4":-0.005893147846516435,"5":-0.5840978158207405,"6":-0.20664343839174956,"7":-0.000007783700760522899,"8":0.02363229393628093,"9":0.1626054826364884,"10":0.01198225544660296,"11":0.6179584492421777,"12":0.09027195315517778,"13":0.08343392330362374,"14":0.09153601643550019}},{"sx":1,"sy":1,"depth":15,"w":{"0":0.02988693862949343,"1":0.06290862786106095,"2":0.0709073596580396,"3":-0.021416593587742807,"4":-0.1422314738093667,"5":-0.04306158802095151,"6":-0.019337309230908612,"7":0.08139578222883942,"8":0.03557728784472821,"9":-0.022430841698696243,"10":-0.17465082743661342,"11":-0.013010925843684532,"12":-0.07781814595414374,"13":-0.10538782684738458,"14":0.3761370490144329}}],"biases":{"sx":1,"sy":1,"depth":30,"w":{"0":0.1,"1":-0.6110470958527828,"2":0.1711392361319274,"3":0.13268658643532655,"4":0.20260577543715,"5":0.3581740292636499,"6":0.12024124166680318,"7":-0.28810440285883043,"8":0.02331373529812244,"9":-0.059962511199644894,"10":0.12116786910488628,"11":0.08480430736656915,"12":0.1,"13":0.08377415342225356,"14":0.2908406244988921,"15":0.8963723680464751,"16":-0.059566799137575246,"17":-0.23812274958143698,"18":0.20975985624627905,"19":0.39129658114887184,"20":-0.25642662856021103,"21":0.23183235139872102,"22":0.18487248391658695,"23":0.0994950052322984,"24":-0.09169448631897012,"25":0.13788798499141336,"26":0.3123968814134009,"27":-0.114798079561148,"28":0.1596706404297137,"29":0.21570110935956147}}},{"out_depth":30,"out_sx":1,"out_sy":1,"layer_type":"relu"},{"out_depth":30,"out_sx":1,"out_sy":1,"layer_type":"fc","num_inputs":30,"l1_decay_mul":0,"l2_decay_mul":1,"filters":[{"sx":1,"sy":1,"depth":30,"w":{"0":-0.025783033919328093,"1":-0.1798695377640142,"2":0.0423406590586766,"3":-0.05562162774318176,"4":-0.27144215478888634,"5":-0.13087299470729732,"6":0.23718926182150976,"7":0.12318155915709611,"8":0.20951845592435786,"9":-0.011089592893808906,"10":-0.028960999931051015,"11":-0.016245877405945353,"12":-0.016985511994651245,"13":-0.01814216460403129,"14":0.061956876682063525,"15":-0.1206382874557972,"16":-0.09567730140086227,"17":-0.09922026601220092,"18":0.044431941248984023,"19":0.07045568300069163,"20":-0.016025379149602392,"21":-0.1140820161313429,"22":-0.06067345261805546,"23":-0.0415160745611207,"24":-0.0015183769974059312,"25":0.05925902876869061,"26":0.3531795935748158,"27":-0.010915352084229793,"28":0.18984455577373913,"29":0.060895874358282684}},{"sx":1,"sy":1,"depth":30,"w":{"0":0.019634686233028803,"1":-0.017195606574562858,"2":-0.0251430411810496,"3":0.0662816873018684,"4":-0.08973697418400656,"5":-0.1821198468182037,"6":-0.06786810006034269,"7":0.1458775507247827,"8":0.039275723751306515,"9":-0.003033221649019654,"10":0.018006829000180226,"11":-0.0108376903537275,"12":0.013932082291097417,"13":0.11340144939238474,"14":0.27285546518631093,"15":0.07771294852922205,"16":-0.01806473608809794,"17":-0.10401194038567112,"18":-0.008029756198967732,"19":-0.0014111393643247974,"20":-0.5157597145936984,"21":0.09982925406450362,"22":0.076637312816239,"23":0.006124869581389094,"24":-0.038094708279664914,"25":0.06276731548878033,"26":0.07471280429273199,"27":-0.04040525338793922,"28":0.46932026548371447,"29":-0.037106720571574686}},{"sx":1,"sy":1,"depth":30,"w":{"0":0.01692503030557505,"1":0.5233390405532047,"2":0.04820522787987829,"3":0.0941299465640652,"4":-0.0825429444460032,"5":-0.19156039099988634,"6":0.00108126242404298,"7":0.2301744447452321,"8":-0.014172841526739864,"9":0.018913378383902536,"10":0.19040434468022957,"11":-0.03607198099575019,"12":0.04587299956608398,"13":0.022462580601791057,"14":0.29454835494044185,"15":0.10308901922845302,"16":-0.10918928575274599,"17":-0.1368492604292195,"18":-0.17303995958264798,"19":-0.08559609684263192,"20":-0.46646691875551616,"21":-0.07111037101701088,"22":0.026868000001806357,"23":0.12032426337574867,"24":0.21538911072055067,"25":-0.1161482600177863,"26":0.1596227137310392,"27":-0.1918497048410156,"28":0.5679217275042299,"29":-0.003932507130716442}},{"sx":1,"sy":1,"depth":30,"w":{"0":-0.047725420720346495,"1":0.01605153395425886,"2":-0.1571277482334707,"3":0.05210723280065746,"4":-0.050564922579568086,"5":-0.11567566720619032,"6":0.02671134993367231,"7":0.14229499729138623,"8":-0.17375981499679544,"9":0.12216244851137772,"10":-0.07969035321555742,"11":0.016883132507186052,"12":0.005294635881135082,"13":-0.010326326193448438,"14":-0.019643744217723216,"15":-0.08802579612888084,"16":-0.030966925335938665,"17":0.21985775891543347,"18":0.08601231596991116,"19":-0.09026818119427084,"20":0.09617722488210445,"21":-0.1426427359602972,"22":-0.03502565107313117,"23":0.041607639376480376,"24":0.1959529684276857,"25":-0.1284064408500056,"26":-0.0005148730669718443,"27":0.1036708992463269,"28":0.030640953355566908,"29":-0.09443825053261283}},{"sx":1,"sy":1,"depth":30,"w":{"0":-0.015179223971406546,"1":-0.039378028242520874,"2":0.06737585657037298,"3":0.10798184341956776,"4":-0.046634272931253315,"5":0.10568205129514714,"6":0.006791227417588626,"7":-0.14562218244586222,"8":0.09576470828345278,"9":-0.04657654425845447,"10":0.07538950498707124,"11":0.014784938745443564,"12":0.04025495236726629,"13":-0.049271205045006546,"14":0.12223846802114204,"15":0.08432147625699783,"16":-0.2695487387510424,"17":0.12773256905777147,"18":-0.012022788499624772,"19":0.11729943970361245,"20":-0.1440214209573688,"21":0.0714307789216403,"22":-0.009952139983871131,"23":-0.05939758046147082,"24":-0.013130718841711053,"25":-0.01687948025662446,"26":0.008903797441423628,"27":-0.282536125165132,"28":0.0624673540782108,"29":-0.0606395844532748}},{"sx":1,"sy":1,"depth":30,"w":{"0":-0.007351305726553013,"1":0.006727387519602617,"2":-0.060129658510909574,"3":-0.05110294713664708,"4":0.020345771565512944,"5":-0.002807392693614596,"6":-0.05244124870928108,"7":-0.07234301603696107,"8":-0.040653867329620064,"9":0.025447035425567335,"10":0.009453975541875563,"11":0.06627725148136433,"12":-0.07014134817491806,"13":-0.03605209219784092,"14":0.031375588465708565,"15":-0.022341847637084206,"16":0.021578401227431956,"17":-0.006998339908287526,"18":0.0006063980401066369,"19":-0.027661207148301427,"20":-0.07043151675213405,"21":0.06357086641278879,"22":0.05475766089757228,"23":-0.046969216920578434,"24":0.02420558698480537,"25":-0.012178232473182093,"26":-0.023244464558946593,"27":-0.052570867916241895,"28":-0.05107049085693628,"29":0.008119638443064443}},{"sx":1,"sy":1,"depth":30,"w":{"0":-0.05838177357252984,"1":0.1380339918568895,"2":0.4762885579046133,"3":-0.02575535033091647,"4":-0.2840006276008041,"5":-0.24342497085069958,"6":0.5255547255609143,"7":0.3037899114657373,"8":-0.2615225219459599,"9":-0.16270459013518473,"10":0.20709667949501387,"11":0.01512638963759256,"12":0.055569648946935224,"13":-0.0598299317236589,"14":0.35279705229701225,"15":0.08548707154379127,"16":-0.28267252936863146,"17":-0.07976247439323333,"18":-0.3216139022362215,"19":-0.3135996430435093,"20":-0.075014010645945,"21":0.19978093591162202,"22":0.13148484928353618,"23":-0.02787440615250374,"24":-0.4223742405388133,"25":0.019302281637961032,"26":0.16286332960791589,"27":-0.4160595868109825,"28":0.07301174971618549,"29":0.18070812686276508}},{"sx":1,"sy":1,"depth":30,"w":{"0":-0.0025990202419635643,"1":0.3212418902605935,"2":0.10652473537532248,"3":0.049136016367922336,"4":0.0617557353073262,"5":0.034335665499113065,"6":0.26366516184132754,"7":0.033876176182067515,"8":0.28782942060253064,"9":-0.08669617164969382,"10":0.14322682642477008,"11":-0.029505213810251736,"12":-0.052952851008670275,"13":0.053396955390774166,"14":0.13160578637327913,"15":0.009341820792370855,"16":0.39476538121959526,"17":0.019066586462167058,"18":-0.022429244015065422,"19":0.13991186981393053,"20":-0.005374960876945445,"21":0.19458352546864516,"22":0.10487079452255808,"23":-0.024082211843652543,"24":-0.06611690175437789,"25":0.12446574864836814,"26":0.1952149485318479,"27":0.010266314792197428,"28":-0.08504981772432021,"29":0.2513878094696649}},{"sx":1,"sy":1,"depth":30,"w":{"0":0.020720899775520427,"1":-0.2570505820290907,"2":-0.19831196114104563,"3":-0.007427847617580016,"4":0.021419140908032964,"5":0.013753732526905144,"6":-0.08189519926642957,"7":0.07107888005957284,"8":0.16297244500180208,"9":0.022773125693930335,"10":0.0725253963354869,"11":0.033748757630195504,"12":-0.10473927979768471,"13":-0.03773691665635642,"14":-0.14060027577180584,"15":0.0641948037520569,"16":-0.42253589499055,"17":0.02557130662227109,"18":-0.039453569338530885,"19":0.022209070195098338,"20":0.06830882126640114,"21":0.06364444635286405,"22":-0.04027748173737799,"23":-0.04841618203725422,"24":-0.021988332882134965,"25":0.0021432804036950774,"26":-0.018806611110498868,"27":0.04001495068158721,"28":-0.0440699187293496,"29":-0.09135541477461469}},{"sx":1,"sy":1,"depth":30,"w":{"0":0.03483767869934879,"1":-0.36960822357477574,"2":0.0017707609042185734,"3":-0.01727898875254178,"4":0.019827004813895707,"5":0.08647026629374442,"6":0.11888884107208042,"7":-0.020259803722825702,"8":-0.09186611910082793,"9":0.011025561050329131,"10":0.05535736005024199,"11":0.019120605678728815,"12":-0.08522246405427088,"13":-0.0038341089228827244,"14":-0.05819141384492424,"15":0.0006243736115647761,"16":-0.3685213096210226,"17":-0.05335972245507682,"18":0.12530000318207113,"19":0.3490740399927197,"20":-0.1056530370198992,"21":0.11066459843605053,"22":0.05916489090514073,"23":0.00891865495381975,"24":-0.03115981121619546,"25":0.07349793679536916,"26":0.3198272317273014,"27":-0.02823985424544373,"28":0.13829538199823807,"29":0.1791727480767335}},{"sx":1,"sy":1,"depth":30,"w":{"0":0.014030462787254167,"1":-0.07409749487327506,"2":-0.07471986972601234,"3":-0.031692727217853905,"4":0.06040091414563176,"5":0.021824477533901352,"6":-0.05555548898247893,"7":0.042076368026993397,"8":0.13718701572562741,"9":0.0355578074750107,"10":-0.07553532039780687,"11":-0.005161858494981095,"12":-0.02223481382131079,"13":0.009259090800411552,"14":0.08611005719779817,"15":-0.07049750006927413,"16":0.09441985433387239,"17":-0.14157298708302926,"18":0.09809445647747578,"19":0.10089069464245916,"20":-0.15424982620447816,"21":-0.06221264541619892,"22":-0.050679115614972216,"23":0.030025532027218825,"24":0.03800220583493905,"25":0.04255062856875865,"26":-0.0586191427340934,"27":0.08188508555869446,"28":0.08751686647174688,"29":-0.027547475095041456}},{"sx":1,"sy":1,"depth":30,"w":{"0":0.07045559326973154,"1":-0.005040796080648919,"2":0.011126343338304359,"3":-0.007683300416757625,"4":-0.057951714229529154,"5":-0.08344214615382484,"6":0.01155602605615418,"7":0.00007937548029199005,"8":-0.014908751889440266,"9":-0.009288155584083593,"10":0.006090950496813356,"11":0.007754845993793479,"12":-0.04172796493998273,"13":-0.07580432410672838,"14":0.011682107086746768,"15":0.025055806225165966,"16":0.08395069670002817,"17":-0.03927946878908229,"18":0.026984209595982533,"19":0.008348662920503108,"20":0.038560947742749034,"21":0.028878384853676935,"22":-0.001175849480234273,"23":0.044708413112232274,"24":0.015705871849788985,"25":-0.020976940228781285,"26":-0.043282325928660756,"27":-0.005814748758887781,"28":-0.026354600424185762,"29":-0.07976764379781914}},{"sx":1,"sy":1,"depth":30,"w":{"0":0.06607136609302668,"1":0.005874380397922085,"2":0.20484132620676182,"3":0.1689489493376145,"4":0.2333727130389876,"5":0.29900280029179177,"6":0.11027113441253118,"7":-0.7195467562771083,"8":-0.00725206462868491,"9":-0.28660713328740056,"10":0.0298733513996237,"11":-0.02064990030992693,"12":-0.015014619921870673,"13":0.02459844755538237,"14":-0.5203206781332335,"15":-0.027084903775769224,"16":0.1847447609218402,"17":-0.20646617087090788,"18":0.3465024504081398,"19":0.23574091147674373,"20":0.00874801578838888,"21":0.05965597722161763,"22":0.07047446613304943,"23":-0.050128781452970776,"24":-0.24939564610468143,"25":0.19319038752259132,"26":0.03357896290468779,"27":-0.1979195152657603,"28":-0.15754208233759062,"29":0.12455035571222009}},{"sx":1,"sy":1,"depth":30,"w":{"0":-0.04288749317219479,"1":0.1516256545722479,"2":0.09145774316244534,"3":-0.030769868114623237,"4":-0.09027169813014976,"5":-0.026868620668463076,"6":-0.06115690635343751,"7":-0.1401575447655687,"8":0.010258933451038394,"9":-0.00011695693578531527,"10":0.05923945002177635,"11":-0.030892459506972062,"12":0.09059187191953882,"13":-0.02947771202212481,"14":0.13001017240661558,"15":-0.020537587449198792,"16":-0.05991916805237955,"17":0.025090129218815437,"18":-0.11009021148495962,"19":0.06566361459285179,"20":0.0846689101958526,"21":-0.03324924797855739,"22":0.0808992553827802,"23":-0.028012936768824482,"24":0.08447615937609539,"25":-0.005689321672344217,"26":-0.02325952272855682,"27":0.08288751971009022,"28":-0.04033274902162904,"29":0.08437582345030484}},{"sx":1,"sy":1,"depth":30,"w":{"0":0.03070254010954651,"1":-0.007976630068619752,"2":0.0074091063802701074,"3":0.06542941101201717,"4":0.04413080695251202,"5":0.466057922699746,"6":0.016167400559282986,"7":-0.9802057587153308,"8":-0.01089982995248738,"9":-0.3425523621284968,"10":0.18611471979734098,"11":-0.022563139530990216,"12":0.02845351420810267,"13":-0.039335447140627026,"14":-0.021570524998168347,"15":-1.3950332974995905,"16":0.027229794024781463,"17":-0.052764238070039736,"18":0.11440397600383334,"19":0.21322851585616764,"20":0.5561596552027229,"21":-0.12498948131992428,"22":-0.043575052800886874,"23":-0.1470720215879191,"24":-0.04256286004591012,"25":-0.0015225502038853764,"26":0.015825727363419688,"27":-0.07243808190297524,"28":-1.0118860369822886,"29":0.05209922724154854}},{"sx":1,"sy":1,"depth":30,"w":{"0":0.009522841267078523,"1":-0.02065695259896944,"2":-0.21066971110315996,"3":0.017450208981430678,"4":0.1191894979363427,"5":0.08028820574197994,"6":-0.05583090651083819,"7":0.04884486867890719,"8":-0.13223152536226582,"9":0.06726802700553604,"10":-0.08256439451363692,"11":0.04229552344001423,"12":0.00021771966211173348,"13":0.05267666324548879,"14":-0.24061931017283858,"15":0.03952490754796798,"16":-0.01928797832708564,"17":0.1979398351164987,"18":0.016901600225468556,"19":0.2174609820249981,"20":0.11700818760525827,"21":-0.07646882804651038,"22":0.021164955622266387,"23":-0.0810045094321109,"24":0.145793422286359,"25":-0.013185186274941682,"26":-0.14701082388810077,"27":0.09829097700107296,"28":-0.14948246537781723,"29":0.06472280883687417}},{"sx":1,"sy":1,"depth":30,"w":{"0":-0.04169632941376025,"1":0.4426591853220311,"2":-0.06412276059613524,"3":-0.018308244899765066,"4":0.11794522574023546,"5":-0.06478481842639955,"6":-0.1376889498342705,"7":-0.008960835615867363,"8":0.13911486778268514,"9":0.0538605252152448,"10":0.045321601432878056,"11":0.01873852308894595,"12":0.04169352854279751,"13":0.054975448900016405,"14":0.22353285953847649,"15":-0.0834548274186685,"16":0.561051676306911,"17":-0.03655228224150842,"18":0.024740364697356545,"19":-0.04132580570242862,"20":0.009415423512636105,"21":0.0405862642931581,"22":0.09845444139215015,"23":0.028101908683430415,"24":0.18183022670486843,"25":0.04754966570403885,"26":-0.022861646960886946,"27":0.10824049176081967,"28":0.10885199269078613,"29":-0.09518426413617016}},{"sx":1,"sy":1,"depth":30,"w":{"0":-0.03943003317063917,"1":-0.01857708065764472,"2":-0.012868232032732891,"3":0.005302703187977489,"4":0.0007473493372864299,"5":-0.04686707543880843,"6":-0.04708621511544143,"7":-0.013862285277835883,"8":-0.019209702747851356,"9":0.009359874544387995,"10":0.012458344745712363,"11":0.00198709246055869,"12":-0.06518410144469892,"13":0.0596974116335301,"14":0.08073895430403594,"15":0.014144690379184852,"16":-0.023364939479144864,"17":0.02370831242175168,"18":0.018049119285375066,"19":0.015268900030221856,"20":-0.03263222018322632,"21":-0.01729033996107733,"22":-0.08091303656865317,"23":0.051644669936453946,"24":-0.028098344192130635,"25":0.046406926808656046,"26":-0.009229570200885181,"27":0.00935498016126696,"28":0.018702620928442538,"29":-0.07499906474856426}},{"sx":1,"sy":1,"depth":30,"w":{"0":-0.04890860162557671,"1":-0.0850598658820831,"2":0.09171936861132571,"3":0.06345655364855679,"4":-0.01922621999469221,"5":-0.012227441166654604,"6":-0.06875053219618425,"7":-0.015331947590329523,"8":-0.1284075331547904,"9":0.01329881519731976,"10":-0.07710386866157568,"11":0.01812225914588024,"12":0.04529146288043381,"13":0.0033003527574431224,"14":-0.016355478859398642,"15":0.09057377457550021,"16":0.015467002294280345,"17":0.04275161232235886,"18":0.06962974356737577,"19":-0.02625304306917239,"20":-0.024530902474382603,"21":-0.032567578747751944,"22":-0.01727928967380144,"23":0.043826944897949124,"24":-0.015178010788618563,"25":-0.037493806194771266,"26":0.04075069995420625,"27":0.030110640830917287,"28":0.006796953459617023,"29":-0.0668861107786703}},{"sx":1,"sy":1,"depth":30,"w":{"0":-0.061149326982783504,"1":0.03442918377092395,"2":-0.10593147501703556,"3":0.07989595447678147,"4":-0.022017949782474157,"5":-0.020372635427103426,"6":-0.0078110933832945895,"7":-0.052731269858938945,"8":-0.023013773132286062,"9":-0.012685482950251757,"10":0.08011239644918795,"11":-0.011334379291151287,"12":-0.0602800726245579,"13":-0.010208152819071078,"14":0.08866672991359875,"15":0.01643013155429428,"16":-0.11952907618033007,"17":-0.18488156272064707,"18":0.008209935440569985,"19":0.0031725171662952854,"20":-0.13587421890965068,"21":-0.15025664945355907,"22":0.005340515815075001,"23":-0.02205096642431793,"24":0.0729053176498846,"25":0.023221425309847617,"26":0.00985104265439575,"27":0.09588776594681928,"28":-0.04706856402096223,"29":0.06401102175454793}},{"sx":1,"sy":1,"depth":30,"w":{"0":-0.012499430797933789,"1":0.032203101648635754,"2":0.0010510535593525499,"3":0.0551828995854446,"4":0.025487496864197,"5":0.0009415503306523332,"6":-0.012273171949418996,"7":0.05333578047664594,"8":-0.03094934837803084,"9":0.032017241779567385,"10":-0.021946000327551243,"11":-0.08146573572831023,"12":0.03703476110943549,"13":0.03949629636196634,"14":-0.11261221472436325,"15":0.1349578565611531,"16":0.033856963242608264,"17":-0.04531622808018814,"18":0.046306732856414096,"19":-0.03758742565371432,"20":0.030957485595059134,"21":-0.011845921899364217,"22":0.03658534970873249,"23":0.02675808767829223,"24":0.10094799036642393,"25":0.03530654501213874,"26":-0.08915055073347404,"27":0.015555040942394634,"28":0.010611322387245202,"29":-0.08214204476723337}},{"sx":1,"sy":1,"depth":30,"w":{"0":-0.003902823556698283,"1":-0.5973600956344173,"2":-0.13227453402535994,"3":-0.007789709138043731,"4":-0.06881073579350418,"5":-0.0536285207585354,"6":-0.005926853595835864,"7":0.15678383536344068,"8":-0.26946347350284644,"9":0.07493903874467257,"10":-0.19410703559266262,"11":-0.013421679313906776,"12":-0.03143657227278885,"13":-0.05900484832594047,"14":-0.04871129716714956,"15":0.015325874186752037,"16":-0.01083429662111442,"17":-0.1347597562471125,"18":0.1655342813089043,"19":0.010608677111221099,"20":0.004646189168339524,"21":-0.03284021688378106,"22":-0.12522537770845746,"23":-0.05023177954615963,"24":0.061025217428725284,"25":-0.024454797122387493,"26":0.31653006012908613,"27":0.10982434504566477,"28":0.0916971787884104,"29":-0.09949037516601221}},{"sx":1,"sy":1,"depth":30,"w":{"0":-0.09474230623026661,"1":-0.025474498371962775,"2":-0.010049298441165186,"3":-0.00802375197028663,"4":0.03359503204619312,"5":0.06727242640955727,"6":-0.07501436881398488,"7":-0.02380171355257561,"8":-0.020253757217754093,"9":-0.0472311423979247,"10":-0.036899403698110046,"11":0.0503054256852579,"12":-0.015215196300075326,"13":-0.01172792904491695,"14":-0.10182137366568533,"15":0.13532838703915676,"16":0.22824098523274394,"17":-0.028347190076230436,"18":-0.02747128971249928,"19":0.04215670318181038,"20":-0.043005676276916906,"21":-0.040601584233171686,"22":0.004797278785343922,"23":0.00728640668393092,"24":0.035844421219996966,"25":-0.021132166114053472,"26":-0.1696923493131959,"27":-0.10008733839609482,"28":-0.08300621188601098,"29":0.015136769641974171}},{"sx":1,"sy":1,"depth":30,"w":{"0":-0.030758697280883693,"1":-0.02575483449849406,"2":-0.006970421958017406,"3":-0.017144782675937515,"4":-0.04843066841918593,"5":-0.03559698319846263,"6":-0.05098120103185024,"7":0.045505670078617395,"8":0.04776979701042887,"9":-0.03137076560294317,"10":0.05268061303071528,"11":0.033058276426648485,"12":-0.1072287217407672,"13":0.0008915444773614311,"14":-0.017194807219402704,"15":-0.019065307360186568,"16":-0.011252431776629117,"17":-0.10369567406075841,"18":0.01504515310560953,"19":-0.0750125272295782,"20":-0.027262252024331267,"21":-0.034399481171587205,"22":0.014184421650233528,"23":-0.0018632276624190158,"24":-0.00860212592633059,"25":0.02061066162138444,"26":-0.047245372885877435,"27":0.051177728880758354,"28":-0.045460497725113666,"29":-0.040317101002504165}},{"sx":1,"sy":1,"depth":30,"w":{"0":0.05581401117384454,"1":-0.06220874988197202,"2":-0.1699934387169922,"3":0.09270296744979521,"4":0.16200533881870607,"5":0.04543745332527801,"6":0.08224323258670645,"7":-0.1395466331003977,"8":-0.10613475400426085,"9":-0.0014427381728517868,"10":0.10612952272768128,"11":0.03618329907480394,"12":-0.009490729766499242,"13":-0.03544546010829508,"14":0.012748169613983637,"15":-1.148488839802751,"16":-0.26150925838390077,"17":0.6041410692183921,"18":-0.05282007870892946,"19":0.049639890007381456,"20":0.17075147580949163,"21":-0.05529690822481643,"22":0.011793305154523414,"23":-0.08540015717700662,"24":-0.02454580968851322,"25":-0.08812625398029156,"26":0.47219689023697964,"27":0.3185923243832873,"28":-0.3073758574878868,"29":0.031205867649359828}},{"sx":1,"sy":1,"depth":30,"w":{"0":0.1011776090043093,"1":-0.1637134041532535,"2":-0.05911941591605939,"3":0.07823513328339005,"4":0.003970286682762218,"5":-0.03814652544803669,"6":-0.00973414406717591,"7":-0.04131229975974451,"8":-0.2137640969379441,"9":-0.03820466628402198,"10":-0.03325830124346077,"11":-0.06606130689988599,"12":-0.029873479462034044,"13":0.03311246589741507,"14":-0.01552540834371583,"15":-0.01672720141431712,"16":0.008360139734737529,"17":-0.08618542101786525,"18":0.05749324978612714,"19":0.021597554264798643,"20":-0.014937771963335535,"21":-0.062027040888812425,"22":-0.04355323666440526,"23":-0.039175112193577714,"24":0.00719671035313924,"25":-0.04942802554176379,"26":0.16778475789473357,"27":0.054493602325406,"28":-0.02067332087028492,"29":0.017639466471729325}},{"sx":1,"sy":1,"depth":30,"w":{"0":0.016899525128896573,"1":0.728635731105831,"2":0.06544852381673119,"3":0.02766919539671591,"4":-0.012981325143165667,"5":-0.08736997474093937,"6":0.09272833544237431,"7":0.12377880711242754,"8":-0.13626986421338474,"9":-0.1515981696074903,"10":0.025172124106756986,"11":0.009821807062636993,"12":-0.03008100974768006,"13":-0.01695388088355956,"14":0.17335704015796438,"15":0.029520855556112353,"16":-0.7544889039894105,"17":-0.31653007354614066,"18":0.39007445580670586,"19":-0.103565820138548,"20":0.12515544876199425,"21":-0.13019353341854328,"22":-0.15356146078409388,"23":0.07510220308564323,"24":-0.037280937516623584,"25":0.00751678891541038,"26":0.3795167299030833,"27":0.08858625572768504,"28":-0.00536667235006632,"29":0.03274416460103399}},{"sx":1,"sy":1,"depth":30,"w":{"0":-0.02624737707895657,"1":-0.018068040509658833,"2":-0.010206162769625623,"3":-0.016556908918480575,"4":0.020833445701981305,"5":-0.05138017562309052,"6":0.03956787303621851,"7":0.018709583203541623,"8":0.007725033766986452,"9":-0.011824143760338487,"10":-0.052326230197096674,"11":-0.015195833532482684,"12":-0.02884288205252512,"13":-0.030864021389420414,"14":0.02904001736414682,"15":0.03479077954238999,"16":-0.0534775791964549,"17":-0.04039134179838779,"18":0.042914791130547844,"19":0.0024078475892933358,"20":-0.04005094200634089,"21":-0.04207370923680854,"22":-0.0484418803419005,"23":-0.010483337348795977,"24":-0.06965055618237485,"25":0.046805677819349016,"26":-0.030700806102255635,"27":-0.05976719042790461,"28":-0.06266267064098781,"29":0.03418901119958173}},{"sx":1,"sy":1,"depth":30,"w":{"0":0.009905792332426284,"1":-0.058141778850109696,"2":0.07891686018179543,"3":-0.011598028371239138,"4":0.024326946274406704,"5":-0.012162194358169006,"6":-0.0681812211381721,"7":-0.42076625786997945,"8":0.2372331094610167,"9":-0.21107668102540195,"10":-0.041680748081007434,"11":-0.0473344882802363,"12":0.006875315430935967,"13":0.0002284456007922652,"14":0.13639980772884192,"15":-0.12589346220792047,"16":0.2259444907559086,"17":-0.07361372548507283,"18":0.06641099595019173,"19":-0.12042065714827373,"20":0.29587852470565423,"21":0.14705301801320073,"22":-0.062207147961040536,"23":-0.0007124774206287723,"24":-0.08247354915988854,"25":-0.09103629700376566,"26":0.07361735051721574,"27":0.0004270684456703676,"28":-0.03914654609622567,"29":0.08384675618963328}},{"sx":1,"sy":1,"depth":30,"w":{"0":-0.0008654359269139224,"1":0.2810679097940873,"2":-0.0238221281883648,"3":-0.015707420031720605,"4":0.032334023043439866,"5":-0.042039922904376956,"6":-0.028159643987142297,"7":0.10980104077204492,"8":0.1613454647035682,"9":0.06165635348145896,"10":-0.056462185507908665,"11":0.024950693100351317,"12":-0.012090739686482246,"13":0.0002682830897494245,"14":-0.030405299529011862,"15":0.0029777699759228108,"16":0.18793162489247558,"17":0.11826542868539708,"18":-0.04501984731295124,"19":-0.04125536560314733,"20":0.07129637609575949,"21":0.0306714479258391,"22":0.03169569012550832,"23":0.059604296923549405,"24":0.013186388866372703,"25":-0.04453369054683996,"26":-0.0818021689666098,"27":0.06432187348471954,"28":-0.020717712878841603,"29":0.097602917407569}}],"biases":{"sx":1,"sy":1,"depth":30,"w":{"0":0.15928100337146536,"1":0.03189339729988534,"2":0.13600578326773985,"3":0.01185988336122107,"4":0.16468381349783692,"5":0.08687279068620801,"6":0.07908701727094143,"7":0.4174883452768965,"8":0.1381055199718966,"9":0.7054590790625628,"10":0.00496269599031072,"11":0.10575685187605612,"12":0.6406316226719667,"13":0.11569301122886777,"14":0.06434203484914931,"15":0.2954723110686483,"16":-0.026635383989687136,"17":0.07722999461434187,"18":0.1185992460004191,"19":0.14795932500167963,"20":0.12248764906741713,"21":0.15784223570582737,"22":0.08160478645228789,"23":0.08397200046392589,"24":0.36111577011594553,"25":0.18528865886387075,"26":0.21194683853835228,"27":0.08650834861112958,"28":-0.08811586372305436,"29":-0.07617881302701966}}},{"out_depth":30,"out_sx":1,"out_sy":1,"layer_type":"relu"},{"out_depth":3,"out_sx":1,"out_sy":1,"layer_type":"fc","num_inputs":30,"l1_decay_mul":0,"l2_decay_mul":1,"filters":[{"sx":1,"sy":1,"depth":30,"w":{"0":0.19148171221014504,"1":-0.465597009634151,"2":-0.7056003453802452,"3":0.0029794600110030654,"4":0.18734232013472246,"5":-0.006849205064601672,"6":-0.5752345770606725,"7":-0.299465647855246,"8":0.49037976863440463,"9":0.7185886292603192,"10":-0.16591567865927642,"11":0.07047824331687798,"12":0.4289712991564572,"13":-0.10756363440319223,"14":-1.7462667977258286,"15":0.26993480238306833,"16":-0.6159648258698597,"17":-0.05245421349748986,"18":0.10842512870328734,"19":0.02389260260202222,"20":0.1247968364400534,"21":0.6773392148655923,"22":-0.08969409981561594,"23":0.021337402916954875,"24":0.39724290088099107,"25":0.30028248420773335,"26":-1.062014210771249,"27":0.012027087362060833,"28":-0.5730966854128834,"29":-0.37410106621109257}},{"sx":1,"sy":1,"depth":30,"w":{"0":-0.4233676444900748,"1":-0.29892104123666247,"2":-0.042755504970173754,"3":0.2821592346699384,"4":-0.40196581418004,"5":0.037034733554052894,"6":-0.49529156508663097,"7":0.2846505234405477,"8":-0.09504945566852284,"9":-0.20359630087106398,"10":-0.14515087998343937,"11":0.04785843550692075,"12":0.7180712111493558,"13":0.057597000340527844,"14":0.18772343629295396,"15":0.4212059937514495,"16":0.24977455423089007,"17":0.017818978683710202,"18":-0.08517265250611442,"19":0.043655504617959015,"20":0.14497867384259264,"21":-0.4651455956887142,"22":0.22531676172196935,"23":-0.010510215914434184,"24":0.7751451717569915,"25":-0.10721249873057423,"26":0.2493386516286562,"27":-0.020881029074596553,"28":0.14393497955910464,"29":0.2069728990603043}},{"sx":1,"sy":1,"depth":30,"w":{"0":0.46941455421096284,"1":0.5809817960440191,"2":0.8301070819946789,"3":-0.42059927384917084,"4":0.2864964394492692,"5":-0.04856680949600855,"6":1.0597655761345168,"7":0.7225154080158567,"8":-0.2879167926088169,"9":0.396182168596577,"10":0.25445622458605693,"11":0.017432516649480447,"12":-0.9384090629889111,"13":0.3048656945479776,"14":1.255153414679912,"15":-0.23162340680935878,"16":0.48462524754830016,"17":-0.021127216246128833,"18":-0.14998575342517947,"19":0.3079476296012568,"20":-0.08995797456341903,"21":-0.09771934645640405,"22":-0.24654109934962476,"23":-0.01761303938974316,"24":-1.2183944624933316,"25":0.07732965050567668,"26":0.6548983131619512,"27":-0.041466607968679875,"28":0.3632255967087215,"29":0.04975407511545634}}],"biases":{"sx":1,"sy":1,"depth":3,"w":{"0":0.8440769149897581,"1":0.32496979765026035,"2":0.8522328469176477}}},{"out_depth":3,"out_sx":1,"out_sy":1,"layer_type":"regression","num_inputs":3}]}